<?xml version="1.0"?>
<opencv_storage>
<stage2>
  <maxWeakCount>8</maxWeakCount>
  <stageThreshold>-2.0496063232421875e+00</stageThreshold>
  <weakClassifiers>
    <_>
      <internalNodes>
        0 -1 413871 -1.1811922490596771e-01</internalNodes>
      <leafValues>
        1.6062176227569580e-01 -8.6220872402191162e-01</leafValues></_>
    <_>
      <internalNodes>
        0 -1 6059 1.1655668914318085e-01</internalNodes>
      <leafValues>
        -6.0077887773513794e-01 5.3237408399581909e-01</leafValues></_>
    <_>
      <internalNodes>
        0 -1 400198 1.9822519272565842e-02</internalNodes>
      <leafValues>
        -4.1414311528205872e-01 4.3583306670188904e-01</leafValues></_>
    <_>
      <internalNodes>
        0 -1 58743 -1.0044300928711891e-02</internalNodes>
      <leafValues>
        3.3937624096870422e-01 -4.8212498426437378e-01</leafValues></_>
    <_>
      <internalNodes>
        0 -1 231309 1.7490580212324858e-03</internalNodes>
      <leafValues>
        -2.7813312411308289e-01 5.0721693038940430e-01</leafValues></_>
    <_>
      <internalNodes>
        0 -1 341989 1.3352098903851584e-05</internalNodes>
      <leafValues>
        -4.6896156668663025e-01 3.1765690445899963e-01</leafValues></_>
    <_>
      <internalNodes>
        0 -1 12575 3.3591496758162975e-03</internalNodes>
      <leafValues>
        -4.3620461225509644e-01 2.9902246594429016e-01</leafValues></_>
    <_>
      <internalNodes>
        0 -1 329123 1.2674664612859488e-03</internalNodes>
      <leafValues>
        -3.1650015711784363e-01 4.4987511634826660e-01</leafValues></_></weakClassifiers></stage2>
</opencv_storage>
